FANN_FLO_2.1
num_layers=2
learning_rate=0.700000
connection_rate=1.000000
network_type=0
learning_momentum=0.000000
training_algorithm=2
train_error_function=1
train_stop_function=0
cascade_output_change_fraction=0.010000
quickprop_decay=-0.000100
quickprop_mu=1.750000
rprop_increase_factor=1.200000
rprop_decrease_factor=0.500000
rprop_delta_min=0.000000
rprop_delta_max=50.000000
rprop_delta_zero=0.100000
cascade_output_stagnation_epochs=12
cascade_candidate_change_fraction=0.010000
cascade_candidate_stagnation_epochs=12
cascade_max_out_epochs=150
cascade_min_out_epochs=50
cascade_max_cand_epochs=150
cascade_min_cand_epochs=50
cascade_num_candidate_groups=2
bit_fail_limit=3.49999994039535522461e-01
cascade_candidate_limit=1.00000000000000000000e+03
cascade_weight_multiplier=4.00000005960464477539e-01
cascade_activation_functions_count=10
cascade_activation_functions=3 5 7 8 10 11 14 15 16 17 
cascade_activation_steepnesses_count=4
cascade_activation_steepnesses=2.50000000000000000000e-01 5.00000000000000000000e-01 7.50000000000000000000e-01 1.00000000000000000000e+00 
layer_sizes=10 21 
scale_included=0
neurons (num_inputs, activation_function, activation_steepness)=(0, 0, 0.00000000000000000000e+00) (0, 0, 0.00000000000000000000e+00) (0, 0, 0.00000000000000000000e+00) (0, 0, 0.00000000000000000000e+00) (0, 0, 0.00000000000000000000e+00) (0, 0, 0.00000000000000000000e+00) (0, 0, 0.00000000000000000000e+00) (0, 0, 0.00000000000000000000e+00) (0, 0, 0.00000000000000000000e+00) (0, 0, 0.00000000000000000000e+00) (10, 3, 5.00000000000000000000e-01) (10, 3, 5.00000000000000000000e-01) (10, 3, 5.00000000000000000000e-01) (10, 3, 5.00000000000000000000e-01) (10, 3, 5.00000000000000000000e-01) (10, 3, 5.00000000000000000000e-01) (10, 3, 5.00000000000000000000e-01) (10, 3, 5.00000000000000000000e-01) (10, 3, 5.00000000000000000000e-01) (10, 3, 5.00000000000000000000e-01) (10, 3, 5.00000000000000000000e-01) (10, 3, 5.00000000000000000000e-01) (10, 3, 5.00000000000000000000e-01) (10, 3, 5.00000000000000000000e-01) (10, 3, 5.00000000000000000000e-01) (10, 3, 5.00000000000000000000e-01) (10, 3, 5.00000000000000000000e-01) (10, 3, 5.00000000000000000000e-01) (10, 3, 5.00000000000000000000e-01) (10, 3, 5.00000000000000000000e-01) (0, 3, 0.00000000000000000000e+00) 
connections (connected_to_neuron, weight)=(0, -3.87068414688110351562e+00) (1, -3.85424613952636718750e+00) (2, -3.76966571807861328125e+00) (3, 3.79939508438110351562e+00) (4, -3.88551616668701171875e+00) (5, -3.93957376480102539062e+00) (6, -3.81556940078735351562e+00) (7, 3.93997144699096679688e+00) (8, 3.84780025482177734375e+00) (9, -3.88329124450683593750e+00) (0, 3.94618558883666992188e+00) (1, -3.77330970764160156250e+00) (2, -3.93679285049438476562e+00) (3, 3.84369468688964843750e+00) (4, -3.88997507095336914062e+00) (5, -3.89993762969970703125e+00) (6, -3.82515239715576171875e+00) (7, 3.92793226242065429688e+00) (8, 3.79592561721801757812e+00) (9, -4.99910026788711547852e-01) (0, -3.83832979202270507812e+00) (1, -3.90873765945434570312e+00) (2, -3.87195491790771484375e+00) (3, 3.88646078109741210938e+00) (4, -3.85230779647827148438e+00) (5, -3.85923337936401367188e+00) (6, -3.91935825347900390625e+00) (7, 3.93143510818481445312e+00) (8, 3.95517969131469726562e+00) (9, -3.86408281326293945312e+00) (0, -3.82475519180297851562e+00) (1, 3.84254693984985351562e+00) (2, -3.76027727127075195312e+00) (3, 3.87973308563232421875e+00) (4, -3.83221197128295898438e+00) (5, -3.88774204254150390625e+00) (6, -3.81789207458496093750e+00) (7, 3.82637262344360351562e+00) (8, 3.81028079986572265625e+00) (9, -4.74377930164337158203e-01) (0, -3.81497001647949218750e+00) (1, -3.91768789291381835938e+00) (2, -3.94340181350708007812e+00) (3, 3.92239141464233398438e+00) (4, -3.83204460144042968750e+00) (5, -3.87532520294189453125e+00) (6, -3.93559741973876953125e+00) (7, 3.81695747375488281250e+00) (8, 3.81065845489501953125e+00) (9, -3.89772319793701171875e+00) (0, -3.78189897537231445312e+00) (1, -3.78572273254394531250e+00) (2, 3.86769342422485351562e+00) (3, 3.82030010223388671875e+00) (4, -3.85731363296508789062e+00) (5, -3.94266605377197265625e+00) (6, -3.79698467254638671875e+00) (7, 3.89748239517211914062e+00) (8, 3.94682073593139648438e+00) (9, -2.02962487936019897461e-01) (0, -3.92465209960937500000e+00) (1, -3.83598613739013671875e+00) (2, -3.91536092758178710938e+00) (3, 3.78922510147094726562e+00) (4, -3.91430473327636718750e+00) (5, -3.78952169418334960938e+00) (6, -3.85656833648681640625e+00) (7, 3.94195747375488281250e+00) (8, 3.79490280151367187500e+00) (9, -3.80433893203735351562e+00) (0, -3.94423723220825195312e+00) (1, -3.77811861038208007812e+00) (2, -3.76397514343261718750e+00) (3, 3.78651523590087890625e+00) (4, -3.81377840042114257812e+00) (5, -3.83796834945678710938e+00) (6, -3.84686136245727539062e+00) (7, 3.92477846145629882812e+00) (8, 3.93704032897949218750e+00) (9, -3.79425477981567382812e+00) (0, -3.93099641799926757812e+00) (1, -3.80291032791137695312e+00) (2, -3.82192611694335937500e+00) (3, 3.89474821090698242188e+00) (4, -3.94066143035888671875e+00) (5, -3.92118835449218750000e+00) (6, -3.80596876144409179688e+00) (7, 3.93650817871093750000e+00) (8, 3.93434524536132812500e+00) (9, -3.81719970703125000000e+00) (0, -3.82139968872070312500e+00) (1, -3.94835805892944335938e+00) (2, -3.89513444900512695312e+00) (3, 3.93739366531372070312e+00) (4, 3.79891872406005859375e+00) (5, -3.85138750076293945312e+00) (6, -3.81017923355102539062e+00) (7, 3.90040159225463867188e+00) (8, 3.84862136840820312500e+00) (9, -2.39272728562355041504e-01) (0, -3.86198854446411132812e+00) (1, -3.85366725921630859375e+00) (2, -3.79339504241943359375e+00) (3, 3.84819078445434570312e+00) (4, -3.82520341873168945312e+00) (5, -3.84912252426147460938e+00) (6, -3.94782924652099609375e+00) (7, 3.80208921432495117188e+00) (8, 3.83370733261108398438e+00) (9, -3.76884031295776367188e+00) (0, -3.95021677017211914062e+00) (1, -3.85534048080444335938e+00) (2, -3.81369876861572265625e+00) (3, 3.90201187133789062500e+00) (4, -3.91864347457885742188e+00) (5, 3.91979408264160156250e+00) (6, -3.77722787857055664062e+00) (7, 3.94954204559326171875e+00) (8, 3.89825057983398437500e+00) (9, -2.20098301768302917480e-01) (0, -3.82570934295654296875e+00) (1, -3.88120031356811523438e+00) (2, -3.79124021530151367188e+00) (3, 3.95331048965454101562e+00) (4, -3.90185832977294921875e+00) (5, -3.95037317276000976562e+00) (6, -3.85612821578979492188e+00) (7, 3.76211690902709960938e+00) (8, 3.90808010101318359375e+00) (9, -3.76555824279785156250e+00) (0, -3.76926279067993164062e+00) (1, -3.91196012496948242188e+00) (2, -3.86117410659790039062e+00) (3, 3.91149663925170898438e+00) (4, -3.82182073593139648438e+00) (5, -3.92832660675048828125e+00) (6, 3.82042551040649414062e+00) (7, 3.90450429916381835938e+00) (8, 3.83181428909301757812e+00) (9, -4.97639238834381103516e-01) (0, -3.82238721847534179688e+00) (1, -3.87645339965820312500e+00) (2, -3.91731071472167968750e+00) (3, 3.83806800842285156250e+00) (4, -3.93249320983886718750e+00) (5, -3.87790250778198242188e+00) (6, -3.91629219055175781250e+00) (7, 3.76443290710449218750e+00) (8, 3.82969093322753906250e+00) (9, -3.77609300613403320312e+00) (0, -3.79455280303955078125e+00) (1, -3.95407009124755859375e+00) (2, -3.89924240112304687500e+00) (3, 3.88836145401000976562e+00) (4, -3.75881052017211914062e+00) (5, -3.84304904937744140625e+00) (6, -3.82006359100341796875e+00) (7, 3.85921525955200195312e+00) (8, 3.87711906433105468750e+00) (9, -3.87003517150878906250e+00) (0, -3.86439466476440429688e+00) (1, -3.85019493103027343750e+00) (2, -3.82394361495971679688e+00) (3, 3.94858551025390625000e+00) (4, -3.89674997329711914062e+00) (5, -3.88771295547485351562e+00) (6, -3.93779230117797851562e+00) (7, 3.88172721862792968750e+00) (8, 3.77484273910522460938e+00) (9, -3.86402940750122070312e+00) (0, -3.89634561538696289062e+00) (1, -3.80559587478637695312e+00) (2, -3.78243160247802734375e+00) (3, 3.86049795150756835938e+00) (4, -3.92557954788208007812e+00) (5, -3.95687341690063476562e+00) (6, -3.77545595169067382812e+00) (7, 3.83228254318237304688e+00) (8, 3.76561069488525390625e+00) (9, -3.90381622314453125000e+00) (0, -3.90186214447021484375e+00) (1, -3.78699302673339843750e+00) (2, -3.89983463287353515625e+00) (3, 3.87305021286010742188e+00) (4, -3.85668325424194335938e+00) (5, -3.90059423446655273438e+00) (6, -3.92805051803588867188e+00) (7, 3.79740762710571289062e+00) (8, 3.91667270660400390625e+00) (9, -3.80898237228393554688e+00) (0, -3.83067893981933593750e+00) (1, -3.90577363967895507812e+00) (2, -3.90112590789794921875e+00) (3, 3.81953191757202148438e+00) (4, -3.91523933410644531250e+00) (5, -3.83982419967651367188e+00) (6, -3.82623243331909179688e+00) (7, 3.82112216949462890625e+00) (8, 3.79995441436767578125e+00) (9, -3.80944108963012695312e+00) 
